<PMML version="4.3" xmlns="http://www.dmg.org/PMML-4_3" xmlns:xsi="http://www.w3.org/2001/XMLSchema-instance" xsi:schemaLocation="http://www.dmg.org/PMML-4_3 http://www.dmg.org/pmml/v4-3/pmml-4-3.xsd">
 <Header copyright="Copyright (c) 2019 mmortari" description="K Nearest Neighbors Model">
  <Extension name="user" value="mmortari" extender="SoftwareAG PMML Generator"/>
  <Application name="SoftwareAG PMML Generator" version="1.4"/>
  <Timestamp>2019-09-07 15:47:42</Timestamp>
 </Header>
 <DataDictionary numberOfFields="5">
  <DataField name="Sepal.Length" optype="continuous" dataType="double"/>
  <DataField name="Sepal.Width" optype="continuous" dataType="double"/>
  <DataField name="Petal.Length" optype="continuous" dataType="double"/>
  <DataField name="Species" optype="categorical" dataType="string">
   <Value value="setosa"/>
   <Value value="versicolor"/>
   <Value value="virginica"/>
  </DataField>
  <DataField name="Petal.Width" optype="continuous" dataType="double"/>
 </DataDictionary>
 <NearestNeighborModel categoricalScoringMethod="majorityVote" continuousScoringMethod="average" instanceIdVariable="ID" threshold="0.001" numberOfNeighbors="3" functionName="mixed">
  <MiningSchema>
   <MiningField name="Sepal.Length" usageType="active"/>
   <MiningField name="Sepal.Width" usageType="active"/>
   <MiningField name="Petal.Length" usageType="active"/>
   <MiningField name="Species" usageType="predicted"/>
   <MiningField name="Petal.Width" usageType="predicted"/>
  </MiningSchema>
  <Output>
	<OutputField name="Predicted_Species" feature="predictedValue" targetField="Species" dataType="string" optype="categorical"/>
	<OutputField name="Predicted_Petal.Width" feature="predictedValue" targetField="Petal.Width" dataType="double" optype="continuous"/>
	<OutputField name="neighbor1" feature="entityId" targetField="Species" dataType="string" optype="categorical" rank="1"/>
	<OutputField name="neighbor2" feature="entityId" targetField="Species" dataType="string" optype="categorical" rank="2"/>
	<OutputField name="neighbor3" feature="entityId" targetField="Species" dataType="string" optype="categorical" rank="3"/>
  </Output>
  <TrainingInstances recordCount="140" fieldCount="6" isTransformed="false">
   <InstanceFields>
    <InstanceField field="Sepal.Length" column="Sepal.Length"/>
    <InstanceField field="Sepal.Width" column="Sepal.Width"/>
    <InstanceField field="Petal.Length" column="Petal.Length"/>
    <InstanceField field="Species" column="Species"/>
    <InstanceField field="Petal.Width" column="Petal.Width"/>
    <InstanceField field="ID" column="ID"/>
   </InstanceFields>
   <InlineTable>
    <row>
     <Sepal.Length>5.1</Sepal.Length>
     <Sepal.Width>3.5</Sepal.Width>
     <Petal.Length>1.4</Petal.Length>
     <Petal.Width>0.2</Petal.Width>
     <Species>setosa</Species>
     <ID>1</ID>
    </row>
    <row>
     <Sepal.Length>4.9</Sepal.Length>
     <Sepal.Width>3</Sepal.Width>
     <Petal.Length>1.4</Petal.Length>
     <Petal.Width>0.2</Petal.Width>
     <Species>setosa</Species>
     <ID>2</ID>
    </row>
    <row>
     <Sepal.Length>4.7</Sepal.Length>
     <Sepal.Width>3.2</Sepal.Width>
     <Petal.Length>1.3</Petal.Length>
     <Petal.Width>0.2</Petal.Width>
     <Species>setosa</Species>
     <ID>3</ID>
    </row>
    <row>
     <Sepal.Length>4.6</Sepal.Length>
     <Sepal.Width>3.1</Sepal.Width>
     <Petal.Length>1.5</Petal.Length>
     <Petal.Width>0.2</Petal.Width>
     <Species>setosa</Species>
     <ID>4</ID>
    </row>
    <row>
     <Sepal.Length>5</Sepal.Length>
     <Sepal.Width>3.6</Sepal.Width>
     <Petal.Length>1.4</Petal.Length>
     <Petal.Width>0.2</Petal.Width>
     <Species>setosa</Species>
     <ID>5</ID>
    </row>
    <row>
     <Sepal.Length>5.4</Sepal.Length>
     <Sepal.Width>3.9</Sepal.Width>
     <Petal.Length>1.7</Petal.Length>
     <Petal.Width>0.4</Petal.Width>
     <Species>setosa</Species>
     <ID>6</ID>
    </row>
    <row>
     <Sepal.Length>4.6</Sepal.Length>
     <Sepal.Width>3.4</Sepal.Width>
     <Petal.Length>1.4</Petal.Length>
     <Petal.Width>0.3</Petal.Width>
     <Species>setosa</Species>
     <ID>7</ID>
    </row>
    <row>
     <Sepal.Length>5</Sepal.Length>
     <Sepal.Width>3.4</Sepal.Width>
     <Petal.Length>1.5</Petal.Length>
     <Petal.Width>0.2</Petal.Width>
     <Species>setosa</Species>
     <ID>8</ID>
    </row>
    <row>
     <Sepal.Length>4.4</Sepal.Length>
     <Sepal.Width>2.9</Sepal.Width>
     <Petal.Length>1.4</Petal.Length>
     <Petal.Width>0.2</Petal.Width>
     <Species>setosa</Species>
     <ID>9</ID>
    </row>
    <row>
     <Sepal.Length>4.9</Sepal.Length>
     <Sepal.Width>3.1</Sepal.Width>
     <Petal.Length>1.5</Petal.Length>
     <Petal.Width>0.1</Petal.Width>
     <Species>setosa</Species>
     <ID>10</ID>
    </row>
    <row>
     <Sepal.Length>5.4</Sepal.Length>
     <Sepal.Width>3.7</Sepal.Width>
     <Petal.Length>1.5</Petal.Length>
     <Petal.Width>0.2</Petal.Width>
     <Species>setosa</Species>
     <ID>11</ID>
    </row>
    <row>
     <Sepal.Length>4.8</Sepal.Length>
     <Sepal.Width>3.4</Sepal.Width>
     <Petal.Length>1.6</Petal.Length>
     <Petal.Width>0.2</Petal.Width>
     <Species>setosa</Species>
     <ID>12</ID>
    </row>
    <row>
     <Sepal.Length>4.8</Sepal.Length>
     <Sepal.Width>3</Sepal.Width>
     <Petal.Length>1.4</Petal.Length>
     <Petal.Width>0.1</Petal.Width>
     <Species>setosa</Species>
     <ID>13</ID>
    </row>
    <row>
     <Sepal.Length>4.3</Sepal.Length>
     <Sepal.Width>3</Sepal.Width>
     <Petal.Length>1.1</Petal.Length>
     <Petal.Width>0.1</Petal.Width>
     <Species>setosa</Species>
     <ID>14</ID>
    </row>
    <row>
     <Sepal.Length>5.8</Sepal.Length>
     <Sepal.Width>4</Sepal.Width>
     <Petal.Length>1.2</Petal.Length>
     <Petal.Width>0.2</Petal.Width>
     <Species>setosa</Species>
     <ID>15</ID>
    </row>
    <row>
     <Sepal.Length>5.7</Sepal.Length>
     <Sepal.Width>4.4</Sepal.Width>
     <Petal.Length>1.5</Petal.Length>
     <Petal.Width>0.4</Petal.Width>
     <Species>setosa</Species>
     <ID>16</ID>
    </row>
    <row>
     <Sepal.Length>5.4</Sepal.Length>
     <Sepal.Width>3.9</Sepal.Width>
     <Petal.Length>1.3</Petal.Length>
     <Petal.Width>0.4</Petal.Width>
     <Species>setosa</Species>
     <ID>17</ID>
    </row>
    <row>
     <Sepal.Length>5.1</Sepal.Length>
     <Sepal.Width>3.5</Sepal.Width>
     <Petal.Length>1.4</Petal.Length>
     <Petal.Width>0.3</Petal.Width>
     <Species>setosa</Species>
     <ID>18</ID>
    </row>
    <row>
     <Sepal.Length>5.7</Sepal.Length>
     <Sepal.Width>3.8</Sepal.Width>
     <Petal.Length>1.7</Petal.Length>
     <Petal.Width>0.3</Petal.Width>
     <Species>setosa</Species>
     <ID>19</ID>
    </row>
    <row>
     <Sepal.Length>5.1</Sepal.Length>
     <Sepal.Width>3.8</Sepal.Width>
     <Petal.Length>1.5</Petal.Length>
     <Petal.Width>0.3</Petal.Width>
     <Species>setosa</Species>
     <ID>20</ID>
    </row>
    <row>
     <Sepal.Length>5.4</Sepal.Length>
     <Sepal.Width>3.4</Sepal.Width>
     <Petal.Length>1.7</Petal.Length>
     <Petal.Width>0.2</Petal.Width>
     <Species>setosa</Species>
     <ID>21</ID>
    </row>
    <row>
     <Sepal.Length>5.1</Sepal.Length>
     <Sepal.Width>3.7</Sepal.Width>
     <Petal.Length>1.5</Petal.Length>
     <Petal.Width>0.4</Petal.Width>
     <Species>setosa</Species>
     <ID>22</ID>
    </row>
    <row>
     <Sepal.Length>4.6</Sepal.Length>
     <Sepal.Width>3.6</Sepal.Width>
     <Petal.Length>1</Petal.Length>
     <Petal.Width>0.2</Petal.Width>
     <Species>setosa</Species>
     <ID>23</ID>
    </row>
    <row>
     <Sepal.Length>5.1</Sepal.Length>
     <Sepal.Width>3.3</Sepal.Width>
     <Petal.Length>1.7</Petal.Length>
     <Petal.Width>0.5</Petal.Width>
     <Species>setosa</Species>
     <ID>24</ID>
    </row>
    <row>
     <Sepal.Length>4.8</Sepal.Length>
     <Sepal.Width>3.4</Sepal.Width>
     <Petal.Length>1.9</Petal.Length>
     <Petal.Width>0.2</Petal.Width>
     <Species>setosa</Species>
     <ID>25</ID>
    </row>
    <row>
     <Sepal.Length>5</Sepal.Length>
     <Sepal.Width>3</Sepal.Width>
     <Petal.Length>1.6</Petal.Length>
     <Petal.Width>0.2</Petal.Width>
     <Species>setosa</Species>
     <ID>26</ID>
    </row>
    <row>
     <Sepal.Length>5</Sepal.Length>
     <Sepal.Width>3.4</Sepal.Width>
     <Petal.Length>1.6</Petal.Length>
     <Petal.Width>0.4</Petal.Width>
     <Species>setosa</Species>
     <ID>27</ID>
    </row>
    <row>
     <Sepal.Length>5.2</Sepal.Length>
     <Sepal.Width>3.5</Sepal.Width>
     <Petal.Length>1.5</Petal.Length>
     <Petal.Width>0.2</Petal.Width>
     <Species>setosa</Species>
     <ID>28</ID>
    </row>
    <row>
     <Sepal.Length>5.2</Sepal.Length>
     <Sepal.Width>3.4</Sepal.Width>
     <Petal.Length>1.4</Petal.Length>
     <Petal.Width>0.2</Petal.Width>
     <Species>setosa</Species>
     <ID>29</ID>
    </row>
    <row>
     <Sepal.Length>4.7</Sepal.Length>
     <Sepal.Width>3.2</Sepal.Width>
     <Petal.Length>1.6</Petal.Length>
     <Petal.Width>0.2</Petal.Width>
     <Species>setosa</Species>
     <ID>30</ID>
    </row>
    <row>
     <Sepal.Length>4.8</Sepal.Length>
     <Sepal.Width>3.1</Sepal.Width>
     <Petal.Length>1.6</Petal.Length>
     <Petal.Width>0.2</Petal.Width>
     <Species>setosa</Species>
     <ID>31</ID>
    </row>
    <row>
     <Sepal.Length>5.4</Sepal.Length>
     <Sepal.Width>3.4</Sepal.Width>
     <Petal.Length>1.5</Petal.Length>
     <Petal.Width>0.4</Petal.Width>
     <Species>setosa</Species>
     <ID>32</ID>
    </row>
    <row>
     <Sepal.Length>5.2</Sepal.Length>
     <Sepal.Width>4.1</Sepal.Width>
     <Petal.Length>1.5</Petal.Length>
     <Petal.Width>0.1</Petal.Width>
     <Species>setosa</Species>
     <ID>33</ID>
    </row>
    <row>
     <Sepal.Length>5.5</Sepal.Length>
     <Sepal.Width>4.2</Sepal.Width>
     <Petal.Length>1.4</Petal.Length>
     <Petal.Width>0.2</Petal.Width>
     <Species>setosa</Species>
     <ID>34</ID>
    </row>
    <row>
     <Sepal.Length>4.9</Sepal.Length>
     <Sepal.Width>3.1</Sepal.Width>
     <Petal.Length>1.5</Petal.Length>
     <Petal.Width>0.2</Petal.Width>
     <Species>setosa</Species>
     <ID>35</ID>
    </row>
    <row>
     <Sepal.Length>5</Sepal.Length>
     <Sepal.Width>3.2</Sepal.Width>
     <Petal.Length>1.2</Petal.Length>
     <Petal.Width>0.2</Petal.Width>
     <Species>setosa</Species>
     <ID>36</ID>
    </row>
    <row>
     <Sepal.Length>5.5</Sepal.Length>
     <Sepal.Width>3.5</Sepal.Width>
     <Petal.Length>1.3</Petal.Length>
     <Petal.Width>0.2</Petal.Width>
     <Species>setosa</Species>
     <ID>37</ID>
    </row>
    <row>
     <Sepal.Length>4.9</Sepal.Length>
     <Sepal.Width>3.6</Sepal.Width>
     <Petal.Length>1.4</Petal.Length>
     <Petal.Width>0.1</Petal.Width>
     <Species>setosa</Species>
     <ID>38</ID>
    </row>
    <row>
     <Sepal.Length>4.4</Sepal.Length>
     <Sepal.Width>3</Sepal.Width>
     <Petal.Length>1.3</Petal.Length>
     <Petal.Width>0.2</Petal.Width>
     <Species>setosa</Species>
     <ID>39</ID>
    </row>
    <row>
     <Sepal.Length>5.1</Sepal.Length>
     <Sepal.Width>3.4</Sepal.Width>
     <Petal.Length>1.5</Petal.Length>
     <Petal.Width>0.2</Petal.Width>
     <Species>setosa</Species>
     <ID>40</ID>
    </row>
    <row>
     <Sepal.Length>5</Sepal.Length>
     <Sepal.Width>3.5</Sepal.Width>
     <Petal.Length>1.3</Petal.Length>
     <Petal.Width>0.3</Petal.Width>
     <Species>setosa</Species>
     <ID>41</ID>
    </row>
    <row>
     <Sepal.Length>4.5</Sepal.Length>
     <Sepal.Width>2.3</Sepal.Width>
     <Petal.Length>1.3</Petal.Length>
     <Petal.Width>0.3</Petal.Width>
     <Species>setosa</Species>
     <ID>42</ID>
    </row>
    <row>
     <Sepal.Length>4.4</Sepal.Length>
     <Sepal.Width>3.2</Sepal.Width>
     <Petal.Length>1.3</Petal.Length>
     <Petal.Width>0.2</Petal.Width>
     <Species>setosa</Species>
     <ID>43</ID>
    </row>
    <row>
     <Sepal.Length>5</Sepal.Length>
     <Sepal.Width>3.5</Sepal.Width>
     <Petal.Length>1.6</Petal.Length>
     <Petal.Width>0.6</Petal.Width>
     <Species>setosa</Species>
     <ID>44</ID>
    </row>
    <row>
     <Sepal.Length>5.1</Sepal.Length>
     <Sepal.Width>3.8</Sepal.Width>
     <Petal.Length>1.9</Petal.Length>
     <Petal.Width>0.4</Petal.Width>
     <Species>setosa</Species>
     <ID>45</ID>
    </row>
    <row>
     <Sepal.Length>4.8</Sepal.Length>
     <Sepal.Width>3</Sepal.Width>
     <Petal.Length>1.4</Petal.Length>
     <Petal.Width>0.3</Petal.Width>
     <Species>setosa</Species>
     <ID>46</ID>
    </row>
    <row>
     <Sepal.Length>5.1</Sepal.Length>
     <Sepal.Width>3.8</Sepal.Width>
     <Petal.Length>1.6</Petal.Length>
     <Petal.Width>0.2</Petal.Width>
     <Species>setosa</Species>
     <ID>47</ID>
    </row>
    <row>
     <Sepal.Length>4.6</Sepal.Length>
     <Sepal.Width>3.2</Sepal.Width>
     <Petal.Length>1.4</Petal.Length>
     <Petal.Width>0.2</Petal.Width>
     <Species>setosa</Species>
     <ID>48</ID>
    </row>
    <row>
     <Sepal.Length>5.3</Sepal.Length>
     <Sepal.Width>3.7</Sepal.Width>
     <Petal.Length>1.5</Petal.Length>
     <Petal.Width>0.2</Petal.Width>
     <Species>setosa</Species>
     <ID>49</ID>
    </row>
    <row>
     <Sepal.Length>5</Sepal.Length>
     <Sepal.Width>3.3</Sepal.Width>
     <Petal.Length>1.4</Petal.Length>
     <Petal.Width>0.2</Petal.Width>
     <Species>setosa</Species>
     <ID>50</ID>
    </row>
    <row>
     <Sepal.Length>7</Sepal.Length>
     <Sepal.Width>3.2</Sepal.Width>
     <Petal.Length>4.7</Petal.Length>
     <Petal.Width>1.4</Petal.Width>
     <Species>versicolor</Species>
     <ID>51</ID>
    </row>
    <row>
     <Sepal.Length>6.4</Sepal.Length>
     <Sepal.Width>3.2</Sepal.Width>
     <Petal.Length>4.5</Petal.Length>
     <Petal.Width>1.5</Petal.Width>
     <Species>versicolor</Species>
     <ID>52</ID>
    </row>
    <row>
     <Sepal.Length>6.9</Sepal.Length>
     <Sepal.Width>3.1</Sepal.Width>
     <Petal.Length>4.9</Petal.Length>
     <Petal.Width>1.5</Petal.Width>
     <Species>versicolor</Species>
     <ID>53</ID>
    </row>
    <row>
     <Sepal.Length>5.5</Sepal.Length>
     <Sepal.Width>2.3</Sepal.Width>
     <Petal.Length>4</Petal.Length>
     <Petal.Width>1.3</Petal.Width>
     <Species>versicolor</Species>
     <ID>54</ID>
    </row>
    <row>
     <Sepal.Length>6.5</Sepal.Length>
     <Sepal.Width>2.8</Sepal.Width>
     <Petal.Length>4.6</Petal.Length>
     <Petal.Width>1.5</Petal.Width>
     <Species>versicolor</Species>
     <ID>55</ID>
    </row>
    <row>
     <Sepal.Length>5.7</Sepal.Length>
     <Sepal.Width>2.8</Sepal.Width>
     <Petal.Length>4.5</Petal.Length>
     <Petal.Width>1.3</Petal.Width>
     <Species>versicolor</Species>
     <ID>56</ID>
    </row>
    <row>
     <Sepal.Length>6.3</Sepal.Length>
     <Sepal.Width>3.3</Sepal.Width>
     <Petal.Length>4.7</Petal.Length>
     <Petal.Width>1.6</Petal.Width>
     <Species>versicolor</Species>
     <ID>57</ID>
    </row>
    <row>
     <Sepal.Length>4.9</Sepal.Length>
     <Sepal.Width>2.4</Sepal.Width>
     <Petal.Length>3.3</Petal.Length>
     <Petal.Width>1</Petal.Width>
     <Species>versicolor</Species>
     <ID>58</ID>
    </row>
    <row>
     <Sepal.Length>6.6</Sepal.Length>
     <Sepal.Width>2.9</Sepal.Width>
     <Petal.Length>4.6</Petal.Length>
     <Petal.Width>1.3</Petal.Width>
     <Species>versicolor</Species>
     <ID>59</ID>
    </row>
    <row>
     <Sepal.Length>5.2</Sepal.Length>
     <Sepal.Width>2.7</Sepal.Width>
     <Petal.Length>3.9</Petal.Length>
     <Petal.Width>1.4</Petal.Width>
     <Species>versicolor</Species>
     <ID>60</ID>
    </row>
    <row>
     <Sepal.Length>5</Sepal.Length>
     <Sepal.Width>2</Sepal.Width>
     <Petal.Length>3.5</Petal.Length>
     <Petal.Width>1</Petal.Width>
     <Species>versicolor</Species>
     <ID>61</ID>
    </row>
    <row>
     <Sepal.Length>5.9</Sepal.Length>
     <Sepal.Width>3</Sepal.Width>
     <Petal.Length>4.2</Petal.Length>
     <Petal.Width>1.5</Petal.Width>
     <Species>versicolor</Species>
     <ID>62</ID>
    </row>
    <row>
     <Sepal.Length>6</Sepal.Length>
     <Sepal.Width>2.2</Sepal.Width>
     <Petal.Length>4</Petal.Length>
     <Petal.Width>1</Petal.Width>
     <Species>versicolor</Species>
     <ID>63</ID>
    </row>
    <row>
     <Sepal.Length>6.1</Sepal.Length>
     <Sepal.Width>2.9</Sepal.Width>
     <Petal.Length>4.7</Petal.Length>
     <Petal.Width>1.4</Petal.Width>
     <Species>versicolor</Species>
     <ID>64</ID>
    </row>
    <row>
     <Sepal.Length>5.6</Sepal.Length>
     <Sepal.Width>2.9</Sepal.Width>
     <Petal.Length>3.6</Petal.Length>
     <Petal.Width>1.3</Petal.Width>
     <Species>versicolor</Species>
     <ID>65</ID>
    </row>
    <row>
     <Sepal.Length>6.7</Sepal.Length>
     <Sepal.Width>3.1</Sepal.Width>
     <Petal.Length>4.4</Petal.Length>
     <Petal.Width>1.4</Petal.Width>
     <Species>versicolor</Species>
     <ID>66</ID>
    </row>
    <row>
     <Sepal.Length>5.6</Sepal.Length>
     <Sepal.Width>3</Sepal.Width>
     <Petal.Length>4.5</Petal.Length>
     <Petal.Width>1.5</Petal.Width>
     <Species>versicolor</Species>
     <ID>67</ID>
    </row>
    <row>
     <Sepal.Length>5.8</Sepal.Length>
     <Sepal.Width>2.7</Sepal.Width>
     <Petal.Length>4.1</Petal.Length>
     <Petal.Width>1</Petal.Width>
     <Species>versicolor</Species>
     <ID>68</ID>
    </row>
    <row>
     <Sepal.Length>6.2</Sepal.Length>
     <Sepal.Width>2.2</Sepal.Width>
     <Petal.Length>4.5</Petal.Length>
     <Petal.Width>1.5</Petal.Width>
     <Species>versicolor</Species>
     <ID>69</ID>
    </row>
    <row>
     <Sepal.Length>5.6</Sepal.Length>
     <Sepal.Width>2.5</Sepal.Width>
     <Petal.Length>3.9</Petal.Length>
     <Petal.Width>1.1</Petal.Width>
     <Species>versicolor</Species>
     <ID>70</ID>
    </row>
    <row>
     <Sepal.Length>5.9</Sepal.Length>
     <Sepal.Width>3.2</Sepal.Width>
     <Petal.Length>4.8</Petal.Length>
     <Petal.Width>1.8</Petal.Width>
     <Species>versicolor</Species>
     <ID>71</ID>
    </row>
    <row>
     <Sepal.Length>6.1</Sepal.Length>
     <Sepal.Width>2.8</Sepal.Width>
     <Petal.Length>4</Petal.Length>
     <Petal.Width>1.3</Petal.Width>
     <Species>versicolor</Species>
     <ID>72</ID>
    </row>
    <row>
     <Sepal.Length>6.3</Sepal.Length>
     <Sepal.Width>2.5</Sepal.Width>
     <Petal.Length>4.9</Petal.Length>
     <Petal.Width>1.5</Petal.Width>
     <Species>versicolor</Species>
     <ID>73</ID>
    </row>
    <row>
     <Sepal.Length>6.1</Sepal.Length>
     <Sepal.Width>2.8</Sepal.Width>
     <Petal.Length>4.7</Petal.Length>
     <Petal.Width>1.2</Petal.Width>
     <Species>versicolor</Species>
     <ID>74</ID>
    </row>
    <row>
     <Sepal.Length>6.4</Sepal.Length>
     <Sepal.Width>2.9</Sepal.Width>
     <Petal.Length>4.3</Petal.Length>
     <Petal.Width>1.3</Petal.Width>
     <Species>versicolor</Species>
     <ID>75</ID>
    </row>
    <row>
     <Sepal.Length>6.6</Sepal.Length>
     <Sepal.Width>3</Sepal.Width>
     <Petal.Length>4.4</Petal.Length>
     <Petal.Width>1.4</Petal.Width>
     <Species>versicolor</Species>
     <ID>76</ID>
    </row>
    <row>
     <Sepal.Length>6.8</Sepal.Length>
     <Sepal.Width>2.8</Sepal.Width>
     <Petal.Length>4.8</Petal.Length>
     <Petal.Width>1.4</Petal.Width>
     <Species>versicolor</Species>
     <ID>77</ID>
    </row>
    <row>
     <Sepal.Length>6.7</Sepal.Length>
     <Sepal.Width>3</Sepal.Width>
     <Petal.Length>5</Petal.Length>
     <Petal.Width>1.7</Petal.Width>
     <Species>versicolor</Species>
     <ID>78</ID>
    </row>
    <row>
     <Sepal.Length>6</Sepal.Length>
     <Sepal.Width>2.9</Sepal.Width>
     <Petal.Length>4.5</Petal.Length>
     <Petal.Width>1.5</Petal.Width>
     <Species>versicolor</Species>
     <ID>79</ID>
    </row>
    <row>
     <Sepal.Length>5.7</Sepal.Length>
     <Sepal.Width>2.6</Sepal.Width>
     <Petal.Length>3.5</Petal.Length>
     <Petal.Width>1</Petal.Width>
     <Species>versicolor</Species>
     <ID>80</ID>
    </row>
    <row>
     <Sepal.Length>5.5</Sepal.Length>
     <Sepal.Width>2.4</Sepal.Width>
     <Petal.Length>3.8</Petal.Length>
     <Petal.Width>1.1</Petal.Width>
     <Species>versicolor</Species>
     <ID>81</ID>
    </row>
    <row>
     <Sepal.Length>5.5</Sepal.Length>
     <Sepal.Width>2.4</Sepal.Width>
     <Petal.Length>3.7</Petal.Length>
     <Petal.Width>1</Petal.Width>
     <Species>versicolor</Species>
     <ID>82</ID>
    </row>
    <row>
     <Sepal.Length>5.8</Sepal.Length>
     <Sepal.Width>2.7</Sepal.Width>
     <Petal.Length>3.9</Petal.Length>
     <Petal.Width>1.2</Petal.Width>
     <Species>versicolor</Species>
     <ID>83</ID>
    </row>
    <row>
     <Sepal.Length>6</Sepal.Length>
     <Sepal.Width>2.7</Sepal.Width>
     <Petal.Length>5.1</Petal.Length>
     <Petal.Width>1.6</Petal.Width>
     <Species>versicolor</Species>
     <ID>84</ID>
    </row>
    <row>
     <Sepal.Length>5.4</Sepal.Length>
     <Sepal.Width>3</Sepal.Width>
     <Petal.Length>4.5</Petal.Length>
     <Petal.Width>1.5</Petal.Width>
     <Species>versicolor</Species>
     <ID>85</ID>
    </row>
    <row>
     <Sepal.Length>6</Sepal.Length>
     <Sepal.Width>3.4</Sepal.Width>
     <Petal.Length>4.5</Petal.Length>
     <Petal.Width>1.6</Petal.Width>
     <Species>versicolor</Species>
     <ID>86</ID>
    </row>
    <row>
     <Sepal.Length>6.7</Sepal.Length>
     <Sepal.Width>3.1</Sepal.Width>
     <Petal.Length>4.7</Petal.Length>
     <Petal.Width>1.5</Petal.Width>
     <Species>versicolor</Species>
     <ID>87</ID>
    </row>
    <row>
     <Sepal.Length>6.3</Sepal.Length>
     <Sepal.Width>2.3</Sepal.Width>
     <Petal.Length>4.4</Petal.Length>
     <Petal.Width>1.3</Petal.Width>
     <Species>versicolor</Species>
     <ID>88</ID>
    </row>
    <row>
     <Sepal.Length>5.6</Sepal.Length>
     <Sepal.Width>3</Sepal.Width>
     <Petal.Length>4.1</Petal.Length>
     <Petal.Width>1.3</Petal.Width>
     <Species>versicolor</Species>
     <ID>89</ID>
    </row>
    <row>
     <Sepal.Length>5.5</Sepal.Length>
     <Sepal.Width>2.5</Sepal.Width>
     <Petal.Length>4</Petal.Length>
     <Petal.Width>1.3</Petal.Width>
     <Species>versicolor</Species>
     <ID>90</ID>
    </row>
    <row>
     <Sepal.Length>5.5</Sepal.Length>
     <Sepal.Width>2.6</Sepal.Width>
     <Petal.Length>4.4</Petal.Length>
     <Petal.Width>1.2</Petal.Width>
     <Species>versicolor</Species>
     <ID>91</ID>
    </row>
    <row>
     <Sepal.Length>6.1</Sepal.Length>
     <Sepal.Width>3</Sepal.Width>
     <Petal.Length>4.6</Petal.Length>
     <Petal.Width>1.4</Petal.Width>
     <Species>versicolor</Species>
     <ID>92</ID>
    </row>
    <row>
     <Sepal.Length>5.8</Sepal.Length>
     <Sepal.Width>2.6</Sepal.Width>
     <Petal.Length>4</Petal.Length>
     <Petal.Width>1.2</Petal.Width>
     <Species>versicolor</Species>
     <ID>93</ID>
    </row>
    <row>
     <Sepal.Length>5</Sepal.Length>
     <Sepal.Width>2.3</Sepal.Width>
     <Petal.Length>3.3</Petal.Length>
     <Petal.Width>1</Petal.Width>
     <Species>versicolor</Species>
     <ID>94</ID>
    </row>
    <row>
     <Sepal.Length>5.6</Sepal.Length>
     <Sepal.Width>2.7</Sepal.Width>
     <Petal.Length>4.2</Petal.Length>
     <Petal.Width>1.3</Petal.Width>
     <Species>versicolor</Species>
     <ID>95</ID>
    </row>
    <row>
     <Sepal.Length>5.7</Sepal.Length>
     <Sepal.Width>3</Sepal.Width>
     <Petal.Length>4.2</Petal.Length>
     <Petal.Width>1.2</Petal.Width>
     <Species>versicolor</Species>
     <ID>96</ID>
    </row>
    <row>
     <Sepal.Length>5.7</Sepal.Length>
     <Sepal.Width>2.9</Sepal.Width>
     <Petal.Length>4.2</Petal.Length>
     <Petal.Width>1.3</Petal.Width>
     <Species>versicolor</Species>
     <ID>97</ID>
    </row>
    <row>
     <Sepal.Length>6.2</Sepal.Length>
     <Sepal.Width>2.9</Sepal.Width>
     <Petal.Length>4.3</Petal.Length>
     <Petal.Width>1.3</Petal.Width>
     <Species>versicolor</Species>
     <ID>98</ID>
    </row>
    <row>
     <Sepal.Length>5.1</Sepal.Length>
     <Sepal.Width>2.5</Sepal.Width>
     <Petal.Length>3</Petal.Length>
     <Petal.Width>1.1</Petal.Width>
     <Species>versicolor</Species>
     <ID>99</ID>
    </row>
    <row>
     <Sepal.Length>5.7</Sepal.Length>
     <Sepal.Width>2.8</Sepal.Width>
     <Petal.Length>4.1</Petal.Length>
     <Petal.Width>1.3</Petal.Width>
     <Species>versicolor</Species>
     <ID>100</ID>
    </row>
    <row>
     <Sepal.Length>6.3</Sepal.Length>
     <Sepal.Width>3.3</Sepal.Width>
     <Petal.Length>6</Petal.Length>
     <Petal.Width>2.5</Petal.Width>
     <Species>virginica</Species>
     <ID>101</ID>
    </row>
    <row>
     <Sepal.Length>5.8</Sepal.Length>
     <Sepal.Width>2.7</Sepal.Width>
     <Petal.Length>5.1</Petal.Length>
     <Petal.Width>1.9</Petal.Width>
     <Species>virginica</Species>
     <ID>102</ID>
    </row>
    <row>
     <Sepal.Length>7.1</Sepal.Length>
     <Sepal.Width>3</Sepal.Width>
     <Petal.Length>5.9</Petal.Length>
     <Petal.Width>2.1</Petal.Width>
     <Species>virginica</Species>
     <ID>103</ID>
    </row>
    <row>
     <Sepal.Length>6.3</Sepal.Length>
     <Sepal.Width>2.9</Sepal.Width>
     <Petal.Length>5.6</Petal.Length>
     <Petal.Width>1.8</Petal.Width>
     <Species>virginica</Species>
     <ID>104</ID>
    </row>
    <row>
     <Sepal.Length>6.5</Sepal.Length>
     <Sepal.Width>3</Sepal.Width>
     <Petal.Length>5.8</Petal.Length>
     <Petal.Width>2.2</Petal.Width>
     <Species>virginica</Species>
     <ID>105</ID>
    </row>
    <row>
     <Sepal.Length>7.6</Sepal.Length>
     <Sepal.Width>3</Sepal.Width>
     <Petal.Length>6.6</Petal.Length>
     <Petal.Width>2.1</Petal.Width>
     <Species>virginica</Species>
     <ID>106</ID>
    </row>
    <row>
     <Sepal.Length>4.9</Sepal.Length>
     <Sepal.Width>2.5</Sepal.Width>
     <Petal.Length>4.5</Petal.Length>
     <Petal.Width>1.7</Petal.Width>
     <Species>virginica</Species>
     <ID>107</ID>
    </row>
    <row>
     <Sepal.Length>7.3</Sepal.Length>
     <Sepal.Width>2.9</Sepal.Width>
     <Petal.Length>6.3</Petal.Length>
     <Petal.Width>1.8</Petal.Width>
     <Species>virginica</Species>
     <ID>108</ID>
    </row>
    <row>
     <Sepal.Length>6.7</Sepal.Length>
     <Sepal.Width>2.5</Sepal.Width>
     <Petal.Length>5.8</Petal.Length>
     <Petal.Width>1.8</Petal.Width>
     <Species>virginica</Species>
     <ID>109</ID>
    </row>
    <row>
     <Sepal.Length>7.2</Sepal.Length>
     <Sepal.Width>3.6</Sepal.Width>
     <Petal.Length>6.1</Petal.Length>
     <Petal.Width>2.5</Petal.Width>
     <Species>virginica</Species>
     <ID>110</ID>
    </row>
    <row>
     <Sepal.Length>6.5</Sepal.Length>
     <Sepal.Width>3.2</Sepal.Width>
     <Petal.Length>5.1</Petal.Length>
     <Petal.Width>2</Petal.Width>
     <Species>virginica</Species>
     <ID>111</ID>
    </row>
    <row>
     <Sepal.Length>6.4</Sepal.Length>
     <Sepal.Width>2.7</Sepal.Width>
     <Petal.Length>5.3</Petal.Length>
     <Petal.Width>1.9</Petal.Width>
     <Species>virginica</Species>
     <ID>112</ID>
    </row>
    <row>
     <Sepal.Length>6.8</Sepal.Length>
     <Sepal.Width>3</Sepal.Width>
     <Petal.Length>5.5</Petal.Length>
     <Petal.Width>2.1</Petal.Width>
     <Species>virginica</Species>
     <ID>113</ID>
    </row>
    <row>
     <Sepal.Length>5.7</Sepal.Length>
     <Sepal.Width>2.5</Sepal.Width>
     <Petal.Length>5</Petal.Length>
     <Petal.Width>2</Petal.Width>
     <Species>virginica</Species>
     <ID>114</ID>
    </row>
    <row>
     <Sepal.Length>5.8</Sepal.Length>
     <Sepal.Width>2.8</Sepal.Width>
     <Petal.Length>5.1</Petal.Length>
     <Petal.Width>2.4</Petal.Width>
     <Species>virginica</Species>
     <ID>115</ID>
    </row>
    <row>
     <Sepal.Length>6.4</Sepal.Length>
     <Sepal.Width>3.2</Sepal.Width>
     <Petal.Length>5.3</Petal.Length>
     <Petal.Width>2.3</Petal.Width>
     <Species>virginica</Species>
     <ID>116</ID>
    </row>
    <row>
     <Sepal.Length>6.5</Sepal.Length>
     <Sepal.Width>3</Sepal.Width>
     <Petal.Length>5.5</Petal.Length>
     <Petal.Width>1.8</Petal.Width>
     <Species>virginica</Species>
     <ID>117</ID>
    </row>
    <row>
     <Sepal.Length>7.7</Sepal.Length>
     <Sepal.Width>3.8</Sepal.Width>
     <Petal.Length>6.7</Petal.Length>
     <Petal.Width>2.2</Petal.Width>
     <Species>virginica</Species>
     <ID>118</ID>
    </row>
    <row>
     <Sepal.Length>7.7</Sepal.Length>
     <Sepal.Width>2.6</Sepal.Width>
     <Petal.Length>6.9</Petal.Length>
     <Petal.Width>2.3</Petal.Width>
     <Species>virginica</Species>
     <ID>119</ID>
    </row>
    <row>
     <Sepal.Length>6</Sepal.Length>
     <Sepal.Width>2.2</Sepal.Width>
     <Petal.Length>5</Petal.Length>
     <Petal.Width>1.5</Petal.Width>
     <Species>virginica</Species>
     <ID>120</ID>
    </row>
    <row>
     <Sepal.Length>6.9</Sepal.Length>
     <Sepal.Width>3.2</Sepal.Width>
     <Petal.Length>5.7</Petal.Length>
     <Petal.Width>2.3</Petal.Width>
     <Species>virginica</Species>
     <ID>121</ID>
    </row>
    <row>
     <Sepal.Length>5.6</Sepal.Length>
     <Sepal.Width>2.8</Sepal.Width>
     <Petal.Length>4.9</Petal.Length>
     <Petal.Width>2</Petal.Width>
     <Species>virginica</Species>
     <ID>122</ID>
    </row>
    <row>
     <Sepal.Length>7.7</Sepal.Length>
     <Sepal.Width>2.8</Sepal.Width>
     <Petal.Length>6.7</Petal.Length>
     <Petal.Width>2</Petal.Width>
     <Species>virginica</Species>
     <ID>123</ID>
    </row>
    <row>
     <Sepal.Length>6.3</Sepal.Length>
     <Sepal.Width>2.7</Sepal.Width>
     <Petal.Length>4.9</Petal.Length>
     <Petal.Width>1.8</Petal.Width>
     <Species>virginica</Species>
     <ID>124</ID>
    </row>
    <row>
     <Sepal.Length>6.7</Sepal.Length>
     <Sepal.Width>3.3</Sepal.Width>
     <Petal.Length>5.7</Petal.Length>
     <Petal.Width>2.1</Petal.Width>
     <Species>virginica</Species>
     <ID>125</ID>
    </row>
    <row>
     <Sepal.Length>7.2</Sepal.Length>
     <Sepal.Width>3.2</Sepal.Width>
     <Petal.Length>6</Petal.Length>
     <Petal.Width>1.8</Petal.Width>
     <Species>virginica</Species>
     <ID>126</ID>
    </row>
    <row>
     <Sepal.Length>6.2</Sepal.Length>
     <Sepal.Width>2.8</Sepal.Width>
     <Petal.Length>4.8</Petal.Length>
     <Petal.Width>1.8</Petal.Width>
     <Species>virginica</Species>
     <ID>127</ID>
    </row>
    <row>
     <Sepal.Length>6.1</Sepal.Length>
     <Sepal.Width>3</Sepal.Width>
     <Petal.Length>4.9</Petal.Length>
     <Petal.Width>1.8</Petal.Width>
     <Species>virginica</Species>
     <ID>128</ID>
    </row>
    <row>
     <Sepal.Length>6.4</Sepal.Length>
     <Sepal.Width>2.8</Sepal.Width>
     <Petal.Length>5.6</Petal.Length>
     <Petal.Width>2.1</Petal.Width>
     <Species>virginica</Species>
     <ID>129</ID>
    </row>
    <row>
     <Sepal.Length>7.2</Sepal.Length>
     <Sepal.Width>3</Sepal.Width>
     <Petal.Length>5.8</Petal.Length>
     <Petal.Width>1.6</Petal.Width>
     <Species>virginica</Species>
     <ID>130</ID>
    </row>
    <row>
     <Sepal.Length>7.4</Sepal.Length>
     <Sepal.Width>2.8</Sepal.Width>
     <Petal.Length>6.1</Petal.Length>
     <Petal.Width>1.9</Petal.Width>
     <Species>virginica</Species>
     <ID>131</ID>
    </row>
    <row>
     <Sepal.Length>7.9</Sepal.Length>
     <Sepal.Width>3.8</Sepal.Width>
     <Petal.Length>6.4</Petal.Length>
     <Petal.Width>2</Petal.Width>
     <Species>virginica</Species>
     <ID>132</ID>
    </row>
    <row>
     <Sepal.Length>6.4</Sepal.Length>
     <Sepal.Width>2.8</Sepal.Width>
     <Petal.Length>5.6</Petal.Length>
     <Petal.Width>2.2</Petal.Width>
     <Species>virginica</Species>
     <ID>133</ID>
    </row>
    <row>
     <Sepal.Length>6.3</Sepal.Length>
     <Sepal.Width>2.8</Sepal.Width>
     <Petal.Length>5.1</Petal.Length>
     <Petal.Width>1.5</Petal.Width>
     <Species>virginica</Species>
     <ID>134</ID>
    </row>
    <row>
     <Sepal.Length>6.1</Sepal.Length>
     <Sepal.Width>2.6</Sepal.Width>
     <Petal.Length>5.6</Petal.Length>
     <Petal.Width>1.4</Petal.Width>
     <Species>virginica</Species>
     <ID>135</ID>
    </row>
    <row>
     <Sepal.Length>7.7</Sepal.Length>
     <Sepal.Width>3</Sepal.Width>
     <Petal.Length>6.1</Petal.Length>
     <Petal.Width>2.3</Petal.Width>
     <Species>virginica</Species>
     <ID>136</ID>
    </row>
    <row>
     <Sepal.Length>6.3</Sepal.Length>
     <Sepal.Width>3.4</Sepal.Width>
     <Petal.Length>5.6</Petal.Length>
     <Petal.Width>2.4</Petal.Width>
     <Species>virginica</Species>
     <ID>137</ID>
    </row>
    <row>
     <Sepal.Length>6.4</Sepal.Length>
     <Sepal.Width>3.1</Sepal.Width>
     <Petal.Length>5.5</Petal.Length>
     <Petal.Width>1.8</Petal.Width>
     <Species>virginica</Species>
     <ID>138</ID>
    </row>
    <row>
     <Sepal.Length>6</Sepal.Length>
     <Sepal.Width>3</Sepal.Width>
     <Petal.Length>4.8</Petal.Length>
     <Petal.Width>1.8</Petal.Width>
     <Species>virginica</Species>
     <ID>139</ID>
    </row>
    <row>
     <Sepal.Length>6.9</Sepal.Length>
     <Sepal.Width>3.1</Sepal.Width>
     <Petal.Length>5.4</Petal.Length>
     <Petal.Width>2.1</Petal.Width>
     <Species>virginica</Species>
     <ID>140</ID>
    </row>
   </InlineTable>
  </TrainingInstances>
  <ComparisonMeasure kind="distance">
   <squaredEuclidean/>
  </ComparisonMeasure>
  <KNNInputs>
   <KNNInput field="Sepal.Length" compareFunction="absDiff"/>
   <KNNInput field="Sepal.Width" compareFunction="absDiff"/>
   <KNNInput field="Petal.Length" compareFunction="absDiff"/>
  </KNNInputs>
 </NearestNeighborModel>
</PMML>
